,BITW,CPER,CRYPTO_EQ,DBC,GLD,ICLN,TAN,UNG,USO
2008-10-31,,,,,,,,,
2008-11-30,,,,,,,,,
2008-12-31,,,,,,,,,
2009-01-31,,,,,,,,,
2009-02-28,,,,,,,,,
2009-03-31,,,,,,,,,
2009-04-30,,,,,,,,,
2009-05-31,,,,,,,,,
2009-06-30,,,,,,,,,
2009-07-31,,,,,,,,,
2009-08-31,,,,,,,,,
2009-09-30,,,,,,,,,
2009-10-31,1.067123555967143e-23,1.067123555967143e-23,1.067123555967143e-23,1.067123555967143e-23,1.0,1.067123555967143e-23,1.067123555967143e-23,1.4045576804879468e-22,5.311061199504312e-19
2009-11-30,6.400728261192421e-23,6.400728261192421e-23,6.400728261192421e-23,6.400728261192421e-23,1.0,6.400728261192421e-23,6.400728261192421e-23,7.77721754818659e-22,2.857836958278551e-18
2009-12-31,4.273172692713694e-22,4.273172692713694e-22,4.273172692713694e-22,4.273172692713694e-22,1.0,4.273172692713694e-22,4.273172692713694e-22,3.911007902911227e-21,1.3728351391093729e-17
2010-01-31,2.1321474225381024e-21,2.1321474225381024e-21,2.1321474225381024e-21,2.1321474225381024e-21,1.0,2.1321474225381024e-21,2.1321474225381024e-21,1.9625876989258043e-20,6.873514255410663e-17
2010-02-28,1.0788854980558843e-20,1.0788854980558843e-20,1.0788854980558843e-20,1.0788854980558843e-20,0.9999999999999998,1.0788854980558843e-20,1.0788854980558843e-20,9.823915551889026e-20,3.4335825763033613e-16
2010-03-31,2.6880387651768617e-20,2.6880387651768617e-20,2.6880387651768617e-20,0.4999999997984041,0.5000000002015951,2.6880387651768617e-20,2.6880387651768617e-20,2.458045122198437e-19,8.594824560347625e-16
2010-04-30,6.721371622419352e-20,6.721371622419352e-20,6.721371622419352e-20,0.49999999992287764,0.5000000000771202,6.721371622419352e-20,6.721371622419352e-20,6.144916271669544e-19,2.1489952009525177e-15
2010-05-31,1.1199189027863197e-19,1.1199189027863197e-19,1.1199189027863197e-19,0.3333333331309216,0.33333333343465155,1.1199189027863197e-19,1.1199189027863197e-19,1.0243866837445656e-18,-0.3333333334344268
2010-06-30,1.8658090789605979e-19,1.8658090789605979e-19,1.8658090789605979e-19,-0.3333333214743046,0.3333333392464141,1.8658090789605979e-19,1.8658090789605979e-19,1.7072888794564836e-18,-0.3333333392792814
2010-07-31,3.103174076565273e-19,3.103174076565273e-19,3.103174076565273e-19,0.3333333328599903,0.33333333362048134,3.103174076565273e-19,3.103174076565273e-19,2.8458003514649523e-18,-0.33333333351952826
2010-08-31,5.171310631914857e-19,5.171310631914857e-19,5.171310631914857e-19,0.33333333326517944,0.3333333333838396,5.171310631914857e-19,5.171310631914857e-19,4.742986706759456e-18,-0.33333333335098103
2010-09-30,8.61960290681096e-19,8.61960290681096e-19,8.61960290681096e-19,0.33333333331397086,0.33333333338032434,8.61960290681096e-19,8.61960290681096e-19,7.905026986514811e-18,0.3333333333057047
2010-10-31,1.43654500924613e-18,1.43654500924613e-18,1.43654500924613e-18,0.33333333347528477,0.3333333335503133,1.43654500924613e-18,1.43654500924613e-18,1.3175166950508677e-17,-0.333333332974402
2010-11-30,2.3942768808660282e-18,2.3942768808660282e-18,2.3942768808660282e-18,0.33333333318941166,0.33333333342599897,2.3942768808660282e-18,2.3942768808660282e-18,2.195894608655449e-17,-0.3333333333845894
2010-12-31,3.989997351133032e-18,3.989997351133032e-18,3.989997351133032e-18,0.3333333332901774,0.3333333333907338,3.989997351133032e-18,3.989997351133032e-18,3.659880249114348e-17,-0.3333333333190886
2011-01-31,6.649819498222403e-18,6.649819498222403e-18,6.649819498222403e-18,0.33333333329154796,0.33333333336749266,6.649819498222403e-18,6.649819498222403e-18,6.099744782020916e-17,-0.33333333334095927
2011-02-28,1.1083022910028426e-17,1.1083022910028426e-17,1.1083022910028426e-17,0.3333333333327392,0.3333333333334983,1.1083022910028426e-17,1.1083022910028426e-17,1.0166241439388944e-16,-0.3333333333337626
2011-03-31,1.8471956439796135e-17,1.8471956439796135e-17,1.8471956439796135e-17,0.33333333345417954,0.3333333335127093,1.8471956439796135e-17,1.8471956439796135e-17,1.6943721394160863e-16,0.333333333033111
2011-04-30,3.078658675002901e-17,3.078658675002901e-17,3.078658675002901e-17,0.33333333333556436,0.33333333334008414,3.078658675002901e-17,3.078658675002901e-17,2.8239545106722107e-16,-0.33333333332435094
2011-05-31,3.848323145524447e-17,3.848323145524447e-17,3.848323145524447e-17,0.24999999999909409,0.2500000000002674,3.848323145524447e-17,3.848323145524447e-17,-0.25000000000108413,-0.24999999999955425
2011-06-30,4.8104090255093536e-17,4.8104090255093536e-17,4.8104090255093536e-17,0.24999999997853825,0.2500000000039427,4.8104090255093536e-17,4.8104090255093536e-17,-0.2500000000125211,-0.25000000000499784
2011-07-31,6.013011440673682e-17,6.013011440673682e-17,6.013011440673682e-17,0.24999999999723233,0.2500000000003739,6.013011440673682e-17,6.013011440673682e-17,-0.25000000000164485,-0.2500000000007486
2011-08-31,7.516268711171626e-17,7.516268711171626e-17,7.516268711171626e-17,0.24999999997428665,0.25000000000471984,7.516268711171626e-17,7.516268711171626e-17,-0.2500000000124467,-0.25000000000854633
2011-09-30,9.395312496009274e-17,9.395312496009274e-17,9.395312496009274e-17,0.2499999995641833,0.25000000011321677,9.395312496009274e-17,9.395312496009274e-17,-0.2500000001632535,-0.2500000001593458
2011-10-31,1.1744153959850514e-16,1.1744153959850514e-16,1.1744153959850514e-16,0.24999999993200892,0.2500000000183674,1.1744153959850514e-16,1.1744153959850514e-16,-0.2500000000300656,-0.25000000001955763
2011-11-30,1.4680194456215193e-16,1.4680194456215193e-16,1.4680194456215193e-16,0.25000000002779277,0.25000000004362777,1.4680194456215193e-16,1.4680194456215193e-16,-0.2500000000459881,-0.2499999998825907
2011-12-31,1.8350243998334555e-16,1.8350243998334555e-16,1.8350243998334555e-16,0.25000000000187644,0.2500000000050755,1.8350243998334555e-16,1.8350243998334555e-16,-0.2500000000065046,0.24999999998654263
2012-01-31,2.293780657302371e-16,2.293780657302371e-16,2.293780657302371e-16,0.24999999999771477,0.25000000000841816,2.293780657302371e-16,2.293780657302371e-16,-0.25000000001203526,-0.24999999998183056
2012-02-29,2.867225854299552e-16,2.867225854299552e-16,2.867225854299552e-16,0.2500000000005864,0.25000000000281625,2.867225854299552e-16,2.867225854299552e-16,-0.25000000000450795,0.249999999992088
2012-03-31,3.5840323501554897e-16,3.5840323501554897e-16,3.5840323501554897e-16,0.25000000000013084,0.25000000000223227,3.5840323501554897e-16,3.5840323501554897e-16,-0.2500000000035756,-0.24999999999405953
2012-04-30,4.480042736291445e-16,4.480042736291445e-16,4.480042736291445e-16,0.24999999990331548,0.2500000002020687,4.480042736291445e-16,4.480042736291445e-16,-0.2500000002437705,-0.24999999965084305
2012-05-31,1.7231855862487028e-19,1.7231855862487028e-19,1.7231855862487028e-19,0.19999999963619614,0.20000000006507054,1.7231855862487028e-19,-0.20000000011324945,-0.2000000001170033,-0.20000000006848076
2012-06-30,5.588512394726105e-23,5.588512394726105e-23,5.588512394726105e-23,0.19999999998322104,0.20000000000106805,5.588512394726105e-23,-0.2000000000093643,-0.20000000000979692,-0.19999999999654983
2012-07-31,-4.290836734132844e-25,-4.290836734132844e-25,-4.290836734132844e-25,5.137258063474218e-11,0.20000000000134738,-0.20000000001584226,-0.2000000000201835,-0.20000000001707607,-0.19999999989417813
2012-08-31,-7.350620866749148e-26,-7.350620866749148e-26,-7.350620866749148e-26,0.19999999998975973,0.20000000000092225,-0.20000000000112,-0.20000000000157775,-0.20000000000166657,-4.9537523228261274e-12
2012-09-30,5.867135239000718e-26,5.867135239000718e-26,5.867135239000718e-26,0.19999999994980083,0.20000000000054127,-0.20000000000074936,-0.20000000000115442,-0.2000000000009029,-4.685145752926033e-11
2012-10-31,-3.42399640783396e-25,-3.42399640783396e-25,-3.42399640783396e-25,0.19999999948949107,0.2000000000182814,-0.20000000001927937,-0.20000000002109974,-0.20000000001927545,-4.3257312906710464e-10
2012-11-30,3.0605969553720987e-25,3.0605969553720987e-25,3.0605969553720987e-25,0.19999999967237406,0.20000000001130785,-0.20000000002309767,-0.20000000003012375,-0.20000000002972493,-2.3337175403287067e-10
2012-12-31,-5.613371563446805e-25,-5.613371563446805e-25,-5.613371563446805e-25,0.19999999977195942,0.2000000000091384,-0.20000000001652848,-0.2000000000232225,-0.2000000000250598,-1.5409149757771955e-10
2013-01-31,-5.714385348083749e-25,-5.714385348083749e-25,-5.714385348083749e-25,0.1999999999875433,0.20000000000020712,-0.200000000000574,-0.2000000000017159,-0.2000000000009895,-8.970146767208656e-12
2013-02-28,-2.3191376658997817e-23,-2.3191376658997817e-23,-2.3191376658997817e-23,0.1999999973150375,0.1999999999732289,-0.20000000011495794,-0.20000000012973196,-0.20000000012205396,-2.3449897326665065e-09
2013-03-31,-3.909911061305332e-24,-3.909911061305332e-24,-3.909911061305332e-24,0.19999999989140022,0.20000000001710083,-0.20000000002963358,-0.20000000002154703,-0.20000000003433102,-5.9874044019499396e-12
2013-04-30,5.4971190976387514e-24,5.4971190976387514e-24,5.4971190976387514e-24,0.19999999988499453,-0.20000000006860533,1.301093244691061e-09,0.200000000184393,-0.20000000014149538,0.1999999984194186
2013-05-31,1.01628252275275e-24,1.01628252275275e-24,1.01628252275275e-24,2.602599690723696e-11,-0.2000000000238561,0.19999999994237777,0.2000000000238561,-0.200000000013912,0.19999999996997225
2013-06-30,8.43153068940254e-24,8.43153068940254e-24,8.43153068940254e-24,3.054501928845708e-12,-0.20000000002116147,-0.19999999999645332,-0.20000000002116147,-0.1999999999982954,0.1999999999598736
2013-07-31,-3.7134222105255676e-27,-3.7134222105255676e-27,-3.7134222105255676e-27,4.9418220804031474e-12,-0.20000000000166956,-0.2000000000010406,0.19999999999221862,-0.20000000000113605,0.19999999999899337
2013-08-31,-7.641397932335755e-24,-7.641397932335755e-24,-7.641397932335755e-24,0.19999999842941438,-0.20000000004395715,-0.20000000017176228,-0.20000000018972744,-0.2000000001647926,1.0003463032497875e-09
2013-09-30,-3.847344522225877e-24,-3.847344522225877e-24,-3.847344522225877e-24,0.19999999995428047,-0.20000000001623564,-0.19999999997984338,0.20000000002337237,-0.2000000000225585,-3.709740259071859e-12
2013-10-31,-1.6807636312835735e-24,-1.6807636312835735e-24,-1.6807636312835735e-24,0.1999999999455585,-0.20000000000570484,-0.19999999999076723,-0.2000000000156833,-0.2000000000156833,-2.6602926019017005e-11
2013-11-30,3.507803795662198e-24,3.507803795662198e-24,3.507803795662198e-24,0.19999999685777334,-0.20000000002902865,-0.1999999999752404,-0.2000000000185596,-0.20000000003015467,-3.0892434481873258e-09
2013-12-31,6.485380709426663e-24,6.485380709426663e-24,6.485380709426663e-24,0.19999999981087696,-0.20000000003017707,0.20000000003339302,-0.19999999999052626,-0.20000000003111243,-1.0391421809754693e-10
2014-01-31,5.826750981539123e-25,5.826750981539123e-25,5.826750981539123e-25,2.403422377435543e-11,-0.1999999997931942,0.2000000000644053,0.2000000000899208,-0.2000000000694673,0.19999999995897838
2014-02-28,-6.672935382608073e-26,-6.672935382608073e-26,-6.672935382608073e-26,9.951183340814053e-12,-0.20000000000122828,0.1999999999823706,0.20000000002636212,-0.20000000001205517,0.19999999996803258
2014-03-31,6.265532244630683e-24,6.265532244630683e-24,6.265532244630683e-24,1.8502716960768066e-11,0.19999999991294085,-0.19999999993113673,-0.2000000000526469,-0.20000000002698765,0.20000000005778504
2014-04-30,1.836582365958461e-24,1.836582365958461e-24,1.836582365958461e-24,0.19999999993741965,0.20000000001677995,-0.19999999953031397,0.20000000005128968,-0.2000000000498351,-4.143617200995723e-10
2014-05-31,3.4540519214206096e-23,3.4540519214206096e-23,3.4540519214206096e-23,0.1999999981662432,-0.2000000002113565,0.20000000027333187,0.20000000035747573,-0.2000000002940966,-6.974961030815937e-10
2014-06-30,3.3567585625964994e-24,3.3567585625964994e-24,3.3567585625964994e-24,0.19999999995318882,0.19999999983291386,-0.20000000006617288,-0.2000000000584464,-0.20000000006614693,-2.31311415650022e-11
2014-07-31,2.1460470785812794e-25,2.1460470785812794e-25,2.1460470785812794e-25,0.19999999991892226,-0.19999999996268308,-0.20000000003475965,-0.20000000003273352,-0.20000000003533844,-1.5563125689155375e-11
2014-08-31,3.6757782453750526e-25,3.6757782453750526e-25,3.6757782453750526e-25,0.1999999999591655,-0.199999999866561,-0.20000000000396767,-0.20000000000375465,-0.20000000000348164,-1.6306954243482278e-10
2014-09-30,-1.0447120866160857e-24,-1.0447120866160857e-24,-1.0447120866160857e-24,0.1999999996809969,-0.20000000002991722,0.2000000000276485,0.20000000003259857,2.770693769871638e-10,-0.19999999995176934
2014-10-31,9.64465184160139e-25,9.64465184160139e-25,9.64465184160139e-25,-1.3124160993487678e-10,0.20000000000630416,0.2000000000380891,0.2000000000566777,-0.1999999998139843,-0.19999999995370338
2014-11-30,-1.3885528315600384e-24,-1.3885528315600384e-24,-1.3885528315600384e-24,-0.2000000000099813,0.19999999998578316,-0.20000000001626703,-0.2000000000164326,-3.932876934513537e-12,-0.19999999996760306
2014-12-31,1.0599654191971791e-25,1.0599654191971791e-25,1.0599654191971791e-25,-0.2000000000025409,6.524323798316067e-12,-0.1999999999976544,-0.20000000000006843,-0.19999999999704784,-0.19999999999616414
2015-01-31,1.7949040952985044e-25,1.7949040952985044e-25,1.7949040952985044e-25,-0.20000000001131604,5.960307725506987e-11,-0.20000000001180937,-0.2000000000123546,-0.1999999999146518,-0.1999999999902651
2015-02-28,5.13294502330806e-25,5.13294502330806e-25,5.13294502330806e-25,-0.20000000004977125,0.1999999986895643,-0.19999999997171783,-1.2592283163157907e-09,-0.20000000000711138,-0.20000000002260715
2015-03-31,9.44846627546004e-26,9.44846627546004e-26,9.44846627546004e-26,-0.20000000000278756,1.1798197166996013e-11,-0.1999999999976596,-0.1999999999868223,-0.19999999999961304,-0.20000000000131915
2015-04-30,6.110944186382597e-25,6.110944186382597e-25,6.110944186382597e-25,-0.20000000000656873,1.2203918891973007e-10,0.2000000000014576,0.20000000001602775,-0.19999999998797247,-0.1999999998659342
2015-05-31,-2.7505842202762913e-26,-2.7505842202762913e-26,-2.7505842202762913e-26,-0.20000000000379747,0.19999999999505877,-1.8403468827322805e-12,-0.19999999999725754,-0.20000000000220686,-0.199999999999839
2015-06-30,6.869766154173687e-26,6.869766154173687e-26,6.869766154173687e-26,-0.20000000000516158,0.1999999999852483,-7.612476604315984e-12,-0.19999999998647774,-0.2000000000086394,-0.20000000000686055
2015-07-31,-6.950331018379496e-26,-6.950331018379496e-26,-6.950331018379496e-26,-0.2000000000024146,-0.19999999999573503,6.788460363919578e-13,-0.1999999999993881,-0.2000000000003112,-0.2000000000014724
2015-08-31,-3.1629412906957533e-24,-3.1629412906957533e-24,-3.1629412906957533e-24,-0.2000000000106686,2.5144599118499664e-11,-0.1999999999818538,-0.20000000001522614,-0.19999999997577778,-0.19999999999132895
2015-09-30,-6.313180614264845e-25,-6.313180614264845e-25,-6.313180614264845e-25,-0.20000000000558682,-4.833764865074939e-12,-0.20000000000550935,0.19999999997509024,-0.20000000000552315,-0.20000000000345677
2015-10-31,7.235010787262409e-25,7.235010787262409e-25,7.235010787262409e-25,-0.20000000001389262,-4.256068723733739e-12,-0.19999999998497248,0.1999999999857164,-0.200000000018673,-0.19999999999248957
2015-11-30,-3.5974347535043746e-25,-3.5974347535043746e-25,-3.5974347535043746e-25,-0.20000000001791457,-0.2000000000029131,0.1999999999004034,5.0976364954079013e-11,-0.20000000001907084,-0.20000000000872162
2015-12-31,-1.145687353585939e-25,-5.674205400322046e-12,-1.145687353585939e-25,-0.20000000000320486,-4.012575638285008e-12,0.19999999999308332,0.19999999999697743,-0.19999999999630125,-0.20000000000074644
2016-01-31,2.0216970219227385e-24,-0.19999999992250242,2.0216970219227385e-24,-0.20000000002693089,-1.500584786537699e-11,0.19999999931492504,6.998243537463589e-10,-0.20000000000326063,-0.20000000001755075
2016-02-29,-3.328969262885589e-24,-0.19999999999899873,-3.328969262885589e-24,-0.20000000001140197,8.271511744411753e-12,0.19999999993981799,2.353535651673685e-11,-0.20000000000896373,-0.20000000000901078
2016-03-31,6.944240677185369e-25,-2.530540332704793e-10,6.944240677185369e-25,-0.20000000001209592,-0.19999999979185018,0.19999999989590775,3.5710777114725235e-11,-0.2000000000032556,-0.20000000000812582
2016-04-30,1.5086401180860953e-24,-0.19999999996748935,1.5086401180860953e-24,-0.20000000001154894,-9.038761174131645e-12,0.19999999995136555,3.849089826100454e-11,-0.2000000000107333,-0.20000000001133322
2016-05-31,-2.638800440011692e-26,-0.1999999999875684,-2.638800440011692e-26,-0.20000000000155124,-0.19999999991425405,0.19999999998232126,8.634895269011319e-12,-1.0414161725901328e-10,-0.2000000000015287
2016-06-30,7.225390621543059e-25,-0.1999999999383212,7.225390621543059e-25,-0.20000000000958876,1.9374880483312558e-11,0.19999999997741874,1.9837437665295037e-11,0.2000000000284745,-0.20000000000698442
2016-07-31,6.366225131630916e-25,-0.19999999998002485,6.366225131630916e-25,-0.20000000000570062,1.1299940033693062e-11,0.1999999999833399,1.0888729163323038e-11,0.20000000000272095,-0.2000000000060252
2016-08-31,1.1498329382740533e-25,-0.1999999999923269,1.1498329382740533e-25,-0.20000000000366502,4.228203362383846e-12,0.19999999998715204,5.574954556908954e-12,-0.20000000000375817,-0.20000000000329485
2016-09-30,-3.0525732083814896e-23,-0.19999999997626114,-3.0525732083814896e-23,-0.2000000000074519,1.4855289589658064e-11,0.1999999999820825,6.1600346870105375e-12,-0.20000000000657683,-0.20000000000661242
2016-10-31,-1.4368770624305186e-24,-0.19999999997697543,-1.4368770624305186e-24,-0.20000000001116994,8.313899704338503e-12,0.1999999999833364,4.109292446254718e-12,-0.20000000000804882,-0.2000000000080462
2016-11-30,-6.538029098377175e-25,-1.754511370254775e-11,-6.538029098377175e-25,-0.20000000000377194,-0.1999999999967105,0.19999999997133033,3.832793031986988e-13,-0.20000000000487483,-0.20000000000538407
2016-12-31,-1.4672390012022726e-23,-1.9704980181857986e-10,-1.4672390012022726e-23,-0.19999999998046097,-0.19999999999099766,0.1999999998535478,-2.7778905166769664e-14,-0.19999999997397344,-0.20000000000394255
2017-01-31,7.605719726424466e-27,-0.1999999999802991,7.605719726424466e-27,-0.20000000000393567,-6.922050344760382e-12,0.20000000000024928,-8.372391824123051e-13,-0.20000000000380452,-0.20000000000395216
2017-02-28,-1.3877311558046719e-24,-0.19999999999266682,-1.3877311558046719e-24,-0.20000000000200083,6.644533345103732e-13,0.1999999999983753,1.1885226957835892e-12,-0.20000000000273396,-0.20000000000237025
2017-03-31,2.559495840785615e-24,-0.1999999999196225,2.559495840785615e-24,-0.2000000000158433,1.8409799398878215e-11,0.19999999998220908,1.9510399702827178e-11,-0.20000000002192006,-0.20000000002248478
2017-04-30,-1.365524975311287e-23,-0.19999999991932402,-1.365524975311287e-23,-0.2000000000148579,2.4347043629137942e-11,0.19999999998153062,2.1140553311256788e-11,-0.20000000001886628,-0.20000000001993362
2017-05-31,-1.6285677841345983e-23,-0.19999999994067794,-1.6285677841345983e-23,-0.20000000000701354,3.7565945881489406e-11,0.1999999999398622,4.343482811330785e-11,-0.2000000000161812,-0.2000000000152643
2017-06-30,1.145839055782879e-25,-2.1829208058165865e-12,1.145839055782879e-25,-0.20000000000132429,-0.19999999999583748,0.19999999999780832,7.809095951361057e-13,-0.20000000000103269,-0.20000000000103338
2017-07-31,3.2657822502965556e-24,-1.010895687990704e-10,3.2657822502965556e-24,-0.20000000005718505,-0.1999999685376165,0.20000000001704726,3.1035533201273684e-08,-0.20000000013135466,-0.20000000012017366
2017-08-31,-1.1833536517567746e-23,-3.25918050635255e-11,-1.1833536517567746e-23,-0.20000000005271165,-1.2989346338947093e-10,0.19999999994724282,0.19999999973866067,-0.20000000004674495,-0.2000000000521548
2017-09-30,3.531218045083708e-25,-9.218544919360188e-11,3.531218045083708e-25,-0.19999999995087783,-2.1515020621824225e-10,0.19999999983609662,0.1999999998948536,-0.20000000000703522,-0.2000000000038011
2017-10-31,-1.4190951735271285e-25,-6.103848057740764e-12,-1.4190951735271285e-25,-0.19999999998182402,-1.8093124354356348e-11,0.1999999999884925,0.19999999998124737,-0.20000000001023038,-0.20000000001400894
2017-11-30,-4.887534374644561e-25,-6.889918111381213e-12,-4.887534374644561e-25,-0.19999999998828621,-1.2959983622892828e-11,0.1999999999854697,0.19999999998630646,-0.20000000000760176,-0.20000000001248605
2017-12-31,-2.9857014276493804e-26,-7.031953678652261e-13,-2.9857014276493804e-26,-0.19999999999851076,-1.8170104256828479e-12,0.19999999999898077,0.1999999999961828,0.1999999999999372,-0.20000000000386828
2018-01-31,1.3229938527399958e-25,1.47669144298216e-13,1.3229938527399958e-25,-0.19999999999483029,3.6137595249796354e-14,0.199999999997395,0.1999999999987471,0.20000000000657525,-0.20000000000226864
2018-02-28,2.545670558890021e-24,-7.639626165323876e-12,2.545670558890021e-24,-0.19999999996918294,-8.317230712972818e-12,0.19999999997879725,0.19999999998808318,-0.20000000002804216,-0.20000000001993778
2018-03-31,-7.343788144925465e-25,-1.9859606142363947e-11,-7.343788144925465e-25,-0.19999999996548837,-8.867063893141066e-12,0.1999999999875463,0.20000000000259935,-0.20000000000932724,-0.20000000000631207
2018-04-30,-1.948775662839075e-24,-1.55856528113323e-11,-1.948775662839075e-24,-0.19999999996838586,-1.5765971953735403e-11,0.19999999999558574,0.1999999999873316,-0.20000000001259327,-0.20000000000475207
2018-05-31,-2.358466589524933e-24,-1.2542686693614086e-10,-2.358466589524933e-24,-0.19999999993003523,-1.46494256476827e-10,0.19999999996993106,0.19999999981728306,-0.20000000001149282,-0.1999999999993368
2018-06-30,-1.171941968167683e-24,-1.5862027851270795e-11,-1.171941968167683e-24,-0.20000000001998425,-2.2116007818083925e-11,0.19999999999886725,0.19999999992864956,-0.20000000001895188,-0.19999999999556897
2018-07-31,-2.2879338582447737e-23,-2.696199139624286e-10,-2.2879338582447737e-23,-0.20000000017548825,-1.4975758480766738e-10,0.19999999999509568,0.19999999910679142,0.20000000023934553,-0.20000000006390162
2018-08-31,1.5170239462774547e-24,-2.0806129219447383e-10,1.5170239462774547e-24,-0.19999999989052122,-2.6014129734450554e-10,0.19999999993646997,0.19999999966587745,-0.20000000004423965,-0.19999999999468912
2018-09-30,-1.1150042988549037e-24,-4.911415195573721e-12,0.20000000000821463,-6.0465901133942784e-12,-0.20000000000122883,0.19999999997641718,4.228596546530242e-12,-0.20000000000445398,-0.19999999999449872
2018-10-31,6.556269585269191e-26,-1.5953632577885776e-11,0.20000000003099117,-0.2000000000205592,-1.0463104257332215e-11,0.19999999993037063,6.387017449331877e-12,-0.2000000000101387,-0.1999999999751365
2018-11-30,-1.049502287414657e-24,-9.376026347084221e-11,0.1999999999849528,-0.2000000000435483,-1.0130555409885023e-10,0.19999999988035327,1.1635816610957341e-10,0.2000000000351648,-0.1999999997445567
2018-12-31,8.911616213573224e-24,-2.3420574448343794e-10,0.20000000011373942,-0.20000000011373942,-9.527735532866132e-11,0.19999999987755815,1.8972077785635832e-10,-0.19999999949843753,-0.1999999998773217
2019-01-31,-1.2429959987581343e-24,-1.7005171130908763e-11,-0.20000000004854754,-0.20000000003927845,-2.2811429036806405e-12,0.1999999999672423,3.8153233477796e-11,-0.19999999993877307,-0.19999999994871914
2019-02-28,7.918232773704372e-26,-7.322091351410229e-12,0.20000000002726898,-0.2000000000032411,-2.1736348526552965e-12,0.19999999998229795,1.0444869699908648e-10,-0.1999999998961992,-0.19999999997704823
2019-03-31,-2.0385508253215486e-24,-8.168039356486421e-12,0.20000000002747959,-0.19999999999002913,-3.576145821003228e-12,0.19999999999033777,3.0217628858144265e-11,-0.19999999997874388,-0.1999999999714479
2019-04-30,-2.679697333318709e-24,0.19999999988188502,0.2000000000452011,-3.909833435213932e-09,-1.0480478086163613e-11,0.19999999997585668,1.5001115711969755e-10,-0.1999999998838649,-0.1999999961428674
2019-05-31,-2.732250617964886e-24,1.2164912758705823e-10,0.20000000002469448,-0.1999999999953105,-4.509088390122135e-12,0.19999999993918957,4.1519479579513656e-11,-0.1999999999403357,-0.19999999993279197
2019-06-30,-3.2049108371683577e-25,7.2414668155791035e-12,0.20000000000684415,-8.745560378276399e-12,1.9259469710982542e-12,0.20000000000224954,0.19999999999974213,-0.1999999999940935,-0.19999999997915768
2019-07-31,-1.330495431455172e-26,1.5551853942677413e-12,0.20000000000174156,-1.8011943004411817e-12,4.602304146358222e-13,0.19999999999966914,0.2000000000006725,-0.19999999999993154,-0.19999999999416862
2019-08-31,4.968034439216591e-25,7.340624499649171e-12,0.20000000000903295,-0.19999999997878162,3.209109644784869e-12,0.19999999998776036,0.19999999999605603,-0.19999999986010616,-1.577131315253712e-10
2019-09-30,-6.019499635045975e-25,1.6233980675842587e-11,0.1999999999963859,-3.64155400667288e-11,5.86010987134004e-12,0.20000000000307638,0.200000000003363,-0.19999999999632165,-0.19999999994234346
2019-10-31,3.8519231416468787e-23,2.674738113229777e-11,0.20000000002078955,-1.913348142073523e-11,7.881502510852703e-12,0.19999999998887655,0.19999999998906162,-0.1999999999833502,-0.1999999999641598
2019-11-30,-3.0531439298278017e-24,3.1581696200817364e-11,0.20000000004314678,-3.0748410936283445e-11,1.1465627525511562e-11,0.1999999999856733,0.19999999998265486,-0.19999999998051451,-0.1999999999342147
2019-12-31,1.2781787277048184e-24,1.0502535816441888e-09,0.2000000001584659,-1.1198756758405961e-10,9.060292478727159e-11,0.1999999999720556,0.19999999868626384,-0.20000000005323215,-0.19999999987713848
2020-01-31,-3.4876517864970494e-24,4.682500924342e-11,0.2000000000841868,-3.7627868051811815e-11,3.784459355464161e-11,0.19999999984459396,0.19999999992120251,-0.200000000024397,-0.20000000000332227
2020-02-29,-8.881911498826038e-27,2.232463854953642e-12,0.20000000000289223,-1.6540522967539798e-12,1.4822292242495115e-12,0.199999999991768,0.1999999999997841,-0.2000000000002464,-0.19999999999994067
2020-03-31,1.4017445332538035e-23,2.892003463914481e-12,0.20000000001122809,-0.19999999996412993,6.258475706145525e-12,3.332513766211504e-11,0.19999999998779458,-0.19999999999564178,-0.19999999999873
2020-04-30,-4.01598689062172e-25,4.219047343126717e-12,0.20000000000981075,-0.19999999996137152,5.208812059232459e-12,0.19999999999577825,3.723804383447958e-11,-0.19999999998188814,-0.20000000000448562
2020-05-31,4.014795484476207e-24,9.022420593658497e-11,0.2000000000807936,-0.19999999964245543,1.0190113676562846e-10,4.163530275477025e-10,0.1999999996934092,-0.19999999997735063,-0.19999999999751283
2020-06-30,-1.4946968230716638e-24,1.390091462192187e-11,0.20000000001566143,-1.106243752343332e-10,9.304291033844965e-12,0.19999999999579435,0.19999999987303316,-0.19999999999362142,-0.19999999998806006
2020-07-31,9.17189773532888e-26,2.0798388057424324e-11,0.20000000001593962,1.638628365284759e-12,1.4976061525550657e-11,0.20000000000629586,0.2000000000054185,-0.19999999998269338,-0.1999999999522396
2020-08-31,2.710755160488596e-25,2.1894974438395463e-11,0.2000000000090897,-9.98415165738696e-12,7.392699625890867e-12,0.20000000000433982,0.2000000000052923,-0.19999999997911724,0.19999999996288914
2020-09-30,-3.404453571287205e-25,1.0005291562372637e-11,0.20000000000843818,-7.57457293341614e-12,4.362782466125938e-12,0.2000000000044449,0.20000000000587345,-0.19999999998335657,-0.1999999999759444
2020-10-31,5.169387004940325e-25,1.915528311226771e-11,0.20000000002212068,-2.3180880211522505e-11,1.6123369606629592e-11,0.20000000001688362,0.20000000002122809,-0.19999999989638712,-0.19999999998492105
2020-11-30,1.5975993387336477e-22,0.19999999992609574,0.2000000000065772,0.19999999995351647,3.697990314190018e-12,1.1841648687924824e-10,0.1999999999721928,-1.3127334802950545e-11,0.20000000000637597
2020-12-31,-8.121964103431074e-26,0.19999999999821141,0.20000000000033183,0.20000000000008064,1.3726116134504728e-13,0.20000000000008322,0.2000000000001478,-5.896575726755211e-13,-4.181535343962225e-13
2021-01-31,1.6441531627057391e-24,0.20000000001535437,0.20000000003903606,1.697587766255116e-11,6.028338627979084e-12,0.20000000002678903,0.2000000000330415,-0.19999999980804406,-5.473078649612422e-11
2021-02-28,-2.346966688182089e-25,0.20000000000154664,0.20000000000154664,1.5146578461883682e-11,3.2378331040632853e-13,0.19999999998746415,0.19999999999332316,-1.3183119250898145e-12,0.19999999999933088
2021-03-31,-6.048235532445012e-26,0.20000000000277593,0.20000000000348708,1.0548506608853435e-12,8.831615113858712e-13,0.20000000000223875,1.3359557664420748e-11,-0.19999999997421525,0.20000000000198542
2021-04-30,8.363719581603086e-25,0.20000000002202897,0.20000000002202897,-2.0494660140409537e-11,1.4078392891263274e-11,1.0487010519573946e-10,0.19999999988953585,-0.19999999998244533,-0.19999999994451792
2021-05-31,5.053207405862758e-24,0.20000000007576632,0.20000000007491014,5.254877551088913e-10,9.255572685898879e-11,0.1999999991982205,0.19999999992803508,-0.19999999997264536,-1.32379150078384e-10
2021-06-30,-1.918700544033034e-24,0.20000000002277268,0.20000000001228818,0.20000000001700088,2.7141262167844224e-11,0.20000000001917437,7.74346349146539e-10,-0.19999999862226062,-5.050155921862663e-10
2021-07-31,3.704078615271696e-25,0.20000000000271267,0.19999999997701268,1.102490118569698e-11,1.975673197284723e-12,0.1999999999838651,0.20000000000702642,-8.06836746021606e-12,0.2000000000083142
2021-08-31,9.425362894795383e-25,0.2000000000127732,0.2000000000152216,-1.1493131844910408e-11,4.028716232723767e-12,0.20000000001268203,0.2000000000152216,1.3887355820957016e-12,-0.19999999992719097
2021-09-30,-9.509990708446092e-26,0.20000000000051896,0.200000000002412,-1.4329508265179929e-12,1.1811715381445472e-12,0.20000000000139956,0.19999999998419837,0.20000000000157464,-7.282375750745858e-12
2021-10-31,1.4412257811206946e-25,0.19999999999511212,0.20000000001015145,-3.406075151558295e-12,3.7233158043449365e-12,0.20000000000431836,0.20000000000549747,0.19999999996746196,-1.0329348226615667e-11
2021-11-30,1.2878249892633985e-25,0.20000000000122972,0.20000000000236567,-9.47249563155092e-13,7.930801653076339e-13,0.20000000000133938,0.2000000000014781,5.69296465685208e-12,-0.1999999999861539
2021-12-31,-2.183534890017716e-25,0.20000000000171544,0.20000000000179682,-9.123815974107479e-13,9.733216014126606e-13,0.20000000000229848,0.20000000000287435,-0.19999999994539133,-4.40378620283383e-11
2022-01-31,-1.0062698457987354e-25,0.20000000000165624,0.20000000000148205,-4.1470401595733893e-13,1.1260445654755715e-12,0.20000000000146592,0.20000000000154425,-1.0833669734656672e-11,-0.19999999998147727
2022-02-28,5.0779774386678114e-24,0.20000000013392205,0.2000000001680129,-1.2539413325869993e-10,3.675158325569781e-10,0.2000000001270988,0.20000000012791702,-0.1999999985580506,-3.920888422990262e-10
2022-03-31,-2.5419227636729606e-26,0.19999999999461102,0.2000000000017874,-1.3218183052123007e-13,1.0494680953958536e-12,0.19999999999940338,0.19999999999971008,0.20000000000195287,-1.3535336386612035e-12
2022-04-30,3.2029650949629244e-25,0.19999999995923037,0.20000000001023902,5.55614362661257e-13,9.608174135424766e-12,0.19999999999622153,0.19999999999375645,0.20000000001784324,-1.2545486158140729e-11
2022-05-31,-2.836506061532065e-25,0.1999999999699704,0.19999999998188603,1.3748848645464946e-12,8.224646609298021e-12,0.20000000000755502,0.20000000000769486,0.20000000001291732,-1.0376919544577984e-11
2022-06-30,4.507206075928856e-25,0.19999999996685686,-0.20000000001254112,-1.0551266537906865e-13,3.3460852206004158e-12,0.19999999999976975,0.19999999999936208,0.20000000001370521,-4.31345933711194e-12
2022-07-31,-4.0529021908944514e-26,0.19999999978421978,0.19999999991752998,-6.920364656825453e-13,1.4700416910593305e-11,0.20000000001079238,0.20000000001022245,0.20000000001264084,-2.4920223180534245e-10
2022-08-31,8.74020044896397e-26,0.1999999999893738,0.20000000000352536,-2.8521780954170104e-13,1.58973985934823e-12,0.19999999999791335,0.2000000000007455,0.2000000000037066,-2.8605673849681366e-12
2022-09-30,-4.53391130199289e-25,0.1999999999660993,0.200000000012573,-3.3564225405409048e-12,6.41191693796073e-12,0.19999999999528795,0.19999999999621573,-0.200000000012573,-7.482521668493734e-12
2022-10-31,-6.844392941127155e-26,0.19999999998320425,0.200000000007995,-6.365225173133972e-13,1.720466183890574e-12,0.1999999999967853,0.19999999999955054,0.20000000000670934,-3.3987194162409247e-12
2022-11-30,-2.409571070069833e-25,0.19999999997985912,0.20000000000668394,-3.574051701433914e-13,2.0019543518811017e-12,0.20000000000016782,0.2000000000014071,0.20000000000629156,-3.230988732735442e-12
2022-12-31,-6.666481315165844e-25,0.19999999996883083,0.20000000001400564,-1.1551479856517461e-12,4.3535474003987995e-12,0.2000000000002534,0.2000000000023262,0.20000000000316864,-5.906611217451212e-12
2023-01-31,-5.562582940719749e-26,0.20000000000127333,0.20000000000464294,-1.004741088799841e-12,5.1997601869023e-12,0.20000000000209536,0.20000000000226273,-0.199999999979654,-3.867378689207138e-12
2023-02-28,2.393541121846922e-26,0.1999999999981213,0.20000000000075713,-3.459031473409307e-13,1.0519026205915564e-12,0.19999999999973272,0.19999999999988602,-0.1999999999985805,-1.5245209912300272e-12
2023-03-31,-9.033235273913019e-24,5.53354811082443e-10,0.20000000014582794,-1.541885294777051e-11,6.286299946913995e-11,0.20000000010759716,0.2000000001106567,-0.20000000002444707,-0.19999999897983448
2023-04-30,-8.582353973429942e-27,0.19999999999842194,0.200000000000929,-2.5275993003896895e-13,8.014264725575729e-13,0.2000000000004495,0.2000000000005181,-0.199999999996012,-2.6153102687461287e-12
2023-05-31,-5.418656927903654e-26,0.19999999999252205,0.20000000001518697,-4.724642591281949e-12,1.0559871422135462e-11,0.20000000000087606,0.20000000000277007,-0.19999999995283513,-2.0525230748080867e-11
2023-06-30,-8.281174916725014e-25,0.19999999998111004,0.20000000002074772,-7.20015888959431e-12,1.8121791037555293e-11,0.19999999999991103,0.2000000000033766,-0.19999999994327977,-2.625301825955204e-11
2023-07-31,-3.1941145055485545e-25,1.3057609224071437e-11,0.20000000000923077,-1.747180289743313e-12,3.8414213246239023e-11,0.2000000000071669,0.20000000000718585,-0.20000000000332985,-0.19999999991986758
2023-08-31,-1.16453407856742e-25,0.20000000000356796,3.7617868155822766e-12,5.071014577572573e-13,5.004337465562888e-11,0.20000000000362467,0.20000000000343277,-0.1999999999972565,-0.19999999993780593
2023-09-30,-2.621314220751246e-24,3.605911277150884e-11,0.20000000001653556,-3.2918414522966127e-12,1.5101821142360833e-09,0.19999999999627804,0.19999999998864662,0.20000000001126816,-0.19999999843773866
2023-10-31,1.3361393508960736e-25,0.199999999987942,0.2000000000066259,-7.632796311277511e-13,4.3621462624938085e-12,0.1999999999985796,0.19999999998725004,0.2000000000056241,-8.853054253980045e-12
2023-11-30,-6.5674030144880295e-24,0.20000000007551597,7.126301193469078e-11,-3.5050818687874336e-11,5.491851173051228e-10,0.20000000005992594,0.20000000005334326,-0.19999999994912732,-0.19999999920658873
2023-12-31,-4.137850136262724e-25,0.19999999999668527,0.20000000001774176,-2.1448683416918635e-12,6.3036565171189214e-12,0.19999999999786772,0.1999999999813577,-0.19999999997829906,-1.9599906895753565e-11
2024-01-31,1.5969737450325456e-25,0.1999999999936664,0.20000000001111204,-1.7659479458108736e-12,6.5020964115535615e-12,0.19999999993234474,6.267036795979607e-10,-0.1999999994212463,0.20000000000665885
2024-02-29,1.046111090150861e-25,0.19999999999952606,0.2000000000007971,8.831393244054499e-13,2.5977384394312704e-13,0.1999999999989032,0.1999999999983298,-6.749060153278885e-13,0.200000000000626
2024-03-31,-1.90613924893951e-25,0.19999999999319762,0.20000000000444995,9.050734652088715e-12,5.3058731093887395e-12,0.19999999997488582,1.921026834886336e-11,-0.19999999999063775,0.20000000000326207
2024-04-30,-2.237930775869027e-25,0.20000000002899554,0.20000000007242036,2.366589368330644e-10,7.72264708386602e-11,0.1999999999861622,0.19999999955725142,-0.19999999998591783,-5.5367388020962543e-11
2024-05-31,3.9794051217244243e-25,0.2000000000063719,0.20000000001786067,1.3280805426875534e-11,2.0788864063248666e-11,0.19999999999140047,0.19999999997341472,-0.1999999999570241,-1.985859828398592e-11
2024-06-30,1.384728417043019e-23,0.2000000000024514,0.1999999999911068,-1.5790328851322747e-12,7.669377055537283e-12,0.1999999999998165,0.19999999999201132,-0.19999999999767715,-7.688653949425497e-12
2024-07-31,5.622160763471983e-25,0.19999999999036575,0.19999999986161354,-3.937890851822072e-12,1.5452750461021467e-10,0.1999999999860281,0.1999999999396109,-0.19999999997275464,-9.116170317333701e-11
2024-08-31,4.069328320183723e-25,0.200000000001792,-5.111516143184449e-12,-4.7309917796710405e-12,0.19999999997266932,0.200000000002103,0.20000000000125656,-0.20000000000204152,-1.0295091227664473e-11
2024-09-30,1.368123711336593e-23,0.19999999999955656,5.472158570792594e-12,-1.469121262382916e-11,0.19999999984026964,0.19999999999191645,0.19999999997399087,-0.19999999990200032,-2.7210290667970846e-10
2024-10-31,-1.1737038566841032e-24,0.19999999999257645,3.066731502733737e-11,-9.556948122632936e-12,0.19999999992961495,0.19999999995231377,0.1999999998684472,-0.2000000000133795,-2.03443984677635e-10
2024-11-30,0.20000000000506352,0.19999999999699772,0.20000000000147838,-1.871265097390668e-12,9.638140449716798e-12,0.19999999998564938,2.2983912170046573e-11,-0.19999999996903664,-7.281115115018867e-12
2024-12-31,0.20000000000645596,0.20000000000049256,0.20000000000640317,1.2435403997788237e-12,1.5466650672748526e-11,0.19999999982101985,1.5021521990976683e-10,-0.19999999998853937,-1.0163655880290515e-11
2025-01-31,0.20000000010942365,0.19999999997788784,0.20000000000675533,3.046302420589379e-10,2.8619034559505477e-10,0.1999999987375159,1.1286425287566417e-09,-0.1999999994032614,-4.569289584609218e-11
2025-02-28,0.20000000001286164,0.2000000000050495,5.7522945663268305e-11,7.566085454481902e-12,6.131839077462354e-11,0.1999999999878089,0.19999999993286832,-0.19999999991607456,-1.892949113557149e-11
2025-03-31,0.20000000000500365,0.20000000000258292,3.693889855330762e-12,1.96806422559156e-10,3.814677238502025e-11,0.19999999997346907,0.1999999999916007,-0.1999999997859935,-2.703020738890878e-12
2025-04-30,0.20000000011752853,0.20000000001162918,2.2681432470781166e-10,1.0485030167591865e-10,7.112833244543417e-10,0.19999999958440684,0.19999999932608856,-0.1999999996264113,-2.9098756954682205e-10
2025-05-31,0.20000000005849478,0.20000000000174534,0.19999999998029142,4.684879873807438e-11,1.9801415713808636e-10,0.1999999991368033,8.035620292890632e-10,-0.19999999969584728,-7.839304786098943e-11
2025-06-30,0.20000000003492874,0.20000000000147652,0.20000000003492874,6.836068187958092e-11,1.0362085933509857e-10,0.19999999990420592,1.639158129574928e-10,-0.19999999964212622,-4.643660097358738e-11
2025-07-31,0.20000000000325394,0.199999999994083,0.20000000000330567,4.678537670769424e-12,8.295746675676186e-12,0.19999999999153806,1.2518628452848478e-11,0.1999999999698448,1.2481522055865258e-11
2025-08-31,0.200000000002387,0.19999999999864113,0.200000000002387,3.768438718202325e-12,5.7126292948976895e-12,0.19999999998286774,1.4739918953544726e-11,-0.19999999998847456,1.0217794389548798e-12
2025-09-30,0.20000000000284657,0.19999999999602766,0.20000000000274418,2.0977093932403705e-12,1.798840791058095e-12,0.19999999999063073,7.563229775955722e-12,-0.19999999999517817,1.1127282619737124e-12
